digraph Tree {
node [shape=box, style="filled, rounded", color="black", fontname=helvetica] ;
edge [fontname=helvetica] ;
0 [label="petal length (cm) <= 2.45\ngini = 0.66\nsamples = 92\nvalue = [57, 50, 43]\nclass = setosa", fillcolor="#fdf6f1"] ;
1 [label="gini = 0.0\nsamples = 35\nvalue = [57, 0, 0]\nclass = setosa", fillcolor="#e58139"] ;
0 -> 1 [labeldistance=2.5, labelangle=45, headlabel="True"] ;
2 [label="sepal length (cm) <= 6.25\ngini = 0.5\nsamples = 57\nvalue = [0, 50, 43]\nclass = versicolor", fillcolor="#e3fbed"] ;
0 -> 2 [labeldistance=2.5, labelangle=-45, headlabel="False"] ;
3 [label="petal width (cm) <= 1.6\ngini = 0.28\nsamples = 27\nvalue = [0, 34, 7]\nclass = versicolor", fillcolor="#62ea9b"] ;
2 -> 3 ;
4 [label="petal width (cm) <= 1.4\ngini = 0.06\nsamples = 21\nvalue = [0, 33, 1]\nclass = versicolor", fillcolor="#3fe685"] ;
3 -> 4 ;
5 [label="gini = 0.0\nsamples = 17\nvalue = [0, 27, 0]\nclass = versicolor", fillcolor="#39e581"] ;
4 -> 5 ;
6 [label="sepal width (cm) <= 2.55\ngini = 0.24\nsamples = 4\nvalue = [0, 6, 1]\nclass = versicolor", fillcolor="#5ae996"] ;
4 -> 6 ;
7 [label="sepal length (cm) <= 6.1\ngini = 0.38\nsamples = 2\nvalue = [0, 3, 1]\nclass = versicolor", fillcolor="#7beeab"] ;
6 -> 7 ;
8 [label="gini = 0.0\nsamples = 1\nvalue = [0, 0, 1]\nclass = virginica", fillcolor="#8139e5"] ;
7 -> 8 ;
9 [label="gini = 0.0\nsamples = 1\nvalue = [0, 3, 0]\nclass = versicolor", fillcolor="#39e581"] ;
7 -> 9 ;
10 [label="gini = 0.0\nsamples = 2\nvalue = [0, 3, 0]\nclass = versicolor", fillcolor="#39e581"] ;
6 -> 10 ;
11 [label="sepal width (cm) <= 3.1\ngini = 0.24\nsamples = 6\nvalue = [0, 1, 6]\nclass = virginica", fillcolor="#965ae9"] ;
3 -> 11 ;
12 [label="gini = 0.0\nsamples = 5\nvalue = [0, 0, 6]\nclass = virginica", fillcolor="#8139e5"] ;
11 -> 12 ;
13 [label="gini = 0.0\nsamples = 1\nvalue = [0, 1, 0]\nclass = versicolor", fillcolor="#39e581"] ;
11 -> 13 ;
14 [label="petal length (cm) <= 4.95\ngini = 0.43\nsamples = 30\nvalue = [0, 16, 36]\nclass = virginica", fillcolor="#b991f1"] ;
2 -> 14 ;
15 [label="gini = 0.0\nsamples = 7\nvalue = [0, 16, 0]\nclass = versicolor", fillcolor="#39e581"] ;
14 -> 15 ;
16 [label="gini = 0.0\nsamples = 23\nvalue = [0, 0, 36]\nclass = virginica", fillcolor="#8139e5"] ;
14 -> 16 ;
}